the 0.04656 0.21318 -0.0074364 -0.45854 -0.035639 0.23643 -0.28836 0.21521 -0.13486 -1.6413 -0.26091 0.032434 0.056621 -0.043296 -0.021672 0.22476 -0.075129 -0.067018 -0.14247 0.038825 -0.18951 0.29977 0.39305 0.17887 -0.17343 -0.21178 0.23617 -0.063681 -0.42318 -0.11661 0.093754 0.17296 -0.33073 0.49112 -0.68995 -0.092462 0.24742 -0.17991 0.097908 0.083118 0.15299 -0.27276 -0.038934 0.54453 0.53737 0.29105 -0.0073514 0.04788 -0.4076 -0.026759 0.17919 0.010977 -0.10963 -0.26395 0.07399 0.26236 -0.1508 0.34623 0.25758 0.11971 -0.037135 -0.071593 0.43898 -0.040764 0.016425 -0.4464 0.17197 0.046246 0.058639 0.041499 0.53948 0.52495 0.11361 -0.048315 -0.36385 0.18704 0.092761 -0.11129 -0.42085 0.13992 -0.39338 -0.067945 0.12188 0.16707 0.075169 -0.015529 -0.19499 0.19638 0.053194 0.2517 -0.34845 -0.10638 -0.34692 -0.19024 -0.2004 0.12154 -0.29208 0.023353 -0.11618 -0.35768 0.062304 0.35884 0.02906 0.0073005 0.0049482 -0.15048 -0.12313 0.19337 0.12173 0.44503 0.25147 0.10781 -0.17716 0.038691 0.08153 0.14667 0.063666 0.061332 -0.075569 -0.37724 0.01585 -0.30342 0.28374 -0.042013 -0.040715 -0.15269 0.07498 0.15577 0.10433 0.31393 0.19309 0.19429 0.15185 -0.10192 -0.018785 0.20791 0.13366 0.19038 -0.25558 0.304 -0.01896 0.20147 -0.4211 -0.0075156 -0.27977 -0.19314 0.046204 0.19971 -0.30207 0.25735 0.68107 -0.19409 0.23984 0.22493 0.65224 -0.13561 -0.17383 -0.048209 -0.1186 0.0021588 -0.019525 0.11948 0.19346 -0.4082 -0.082966 0.16626 -0.10601 0.35861 0.16922 0.07259 -0.24803 -0.10024 -0.52491 -0.17745 -0.36647 0.2618 -0.012077 0.08319 -0.21528 0.41045 0.29136 0.30869 0.078864 0.32207 -0.041023 -0.1097 -0.092041 -0.12339 -0.16416 0.35382 -0.082774 0.33171 -0.24738 -0.048928 0.15746 0.18988 -0.026642 0.063315 -0.010673 0.34089 1.4106 0.13417 0.28191 -0.2594 0.055267 -0.052425 -0.25789 0.019127 -0.022084 0.32113 0.068818 0.51207 0.16478 -0.20194 0.29232 0.098575 0.013145 -0.10652 0.1351 -0.045332 0.20697 -0.48425 -0.44706 0.0033305 0.0029264 -0.10975 -0.23325 0.22442 -0.10503 0.12339 0.10978 0.048994 -0.25157 0.40319 0.35318 0.18651 -0.023622 -0.12734 0.11475 0.27359 -0.21866 0.015794 0.81754 -0.023792 -0.85469 -0.16203 0.18076 0.028014 -0.1434 0.0013139 -0.091735 -0.089704 0.11105 -0.16703 0.068377 -0.087388 -0.039789 0.014184 0.21187 0.28579 -0.28797 -0.058996 -0.032436 -0.0047009 -0.17052 -0.034741 -0.11489 0.075093 0.099526 0.048183 -0.073775 -0.41817 0.0041268 0.44414 -0.16062 0.14294 -2.2628 -0.027347 0.81311 0.77417 -0.25639 -0.11576 -0.11982 -0.21363 0.028429 0.27261 0.031026 0.096782 0.0067769 0.14082 -0.013064 -0.29686 -0.079913 0.195 0.031549 0.28506 -0.087461 0.0090611 -0.20989 0.053913
of -0.076947 -0.021211 0.21271 -0.72232 -0.13988 -0.12234 -0.17521 0.12137 -0.070866 -1.5721 -0.22464 0.04269 -0.4018 0.21006 0.014288 0.41628 0.017165 0.071732 0.0069246 0.18107 -0.15412 0.14933 -0.030493 0.29918 0.029479 -0.036147 -0.061125 0.083918 -0.12398 -0.10077 -0.0054142 0.3371 -0.25612 0.44388 -0.68922 0.1802 0.34898 -0.052284 -0.26226 -0.47109 0.21647 -0.4002 -0.049986 0.011376 0.54994 -0.22791 0.095873 0.47693 -0.056727 -0.17895 0.11756 0.14662 0.048948 0.13587 -0.093821 0.45968 -0.32062 0.29911 0.20656 -0.18503 -0.2769 -0.022545 0.70698 -0.23815 0.16437 -0.55044 -0.0010615 0.12266 0.11898 0.23985 0.29815 0.013207 0.16316 -0.61334 -0.37051 0.19444 -0.13621 -0.30426 -0.37715 0.065299 -0.15995 -0.56516 0.074696 0.40184 0.19328 0.041802 0.20572 0.28971 0.34783 0.33873 -0.10052 -0.16397 -0.15236 -0.086815 0.36522 0.14969 -0.40859 0.23106 0.17162 -0.60545 0.086019 0.37043 0.17937 -0.40282 -0.62471 -0.055919 0.15092 0.12554 -0.45344 0.34417 0.40042 -0.049512 -0.29969 -0.31761 0.30023 0.090029 0.3106 -0.033077 -0.21995 -0.40396 -0.34443 -0.21248 -0.37636 0.21835 -0.1785 -0.17261 0.16391 0.22753 0.2686 0.57541 -0.14912 0.20413 0.22187 -0.27014 0.068253 0.29115 -0.067943 0.10623 -0.16281 0.19939 -0.48613 0.035688 -0.12373 0.13707 0.33359 -0.12713 -0.31711 -0.13962 -0.04288 -0.0014614 0.76883 -0.41705 -0.092911 0.16315 0.29202 0.12119 -0.076683 0.14131 -0.093406 -0.042796 0.13738 0.014278 0.11918 -0.34215 -0.19076 -0.12499 0.24648 0.42259 0.091966 0.45351 0.14437 0.1878 -0.85876 0.059621 -0.32242 0.28627 0.12427 0.0090984 -0.1891 0.16638 0.099881 -0.048553 -0.026257 0.099904 0.12406 -0.015416 -0.29707 -0.4044 -0.17258 0.36468 -0.014118 -0.11889 -0.11686 -0.14124 0.28012 0.067644 0.1485 -0.35702 0.29626 0.36004 1.019 -0.067307 -0.11588 -0.2178 0.070191 0.23154 -0.13849 0.26441 0.28742 0.1941 -0.0060504 0.44105 0.12416 -0.27745 -0.25729 0.10992 0.18362 -0.34522 -0.21861 -0.18825 -0.037454 -0.20862 -0.25216 0.060842 0.068595 0.10275 0.10745 -0.061288 0.19725 -0.27739 -0.022559 0.052794 -0.24083 0.09199 0.30959 0.054999 0.063676 -0.087357 -0.34495 0.22793 -0.42405 0.24536 0.55708 0.19126 -0.797 -0.2048 0.32545 0.09235 0.084791 -0.16433 -0.066568 -0.099249 0.31526 -0.44465 0.087281 0.3288 -0.017809 -0.23855 -0.12848 0.041509 0.46728 0.48214 0.10548 0.065805 0.067221 0.13321 -0.27856 0.015532 0.30026 0.38748 -0.14401 -0.16131 0.17678 0.16448 -0.3244 0.007937 -2.2836 0.096945 0.66131 0.16857 -0.028877 -0.10791 -0.027445 -0.25695 0.046686 0.23087 -0.076458 0.27127 0.25185 0.054947 -0.36673 -0.38603 0.3029 0.015747 0.34036 0.47841 0.068617 0.18351 -0.29183 -0.046533
and 0.038466 -0.039792 0.082747 -0.38923 -0.21431 0.1702 -0.025657 0.09578 0.2386 -1.6342 0.14332 -0.037958 -0.019583 0.38494 0.097319 0.29697 -0.34523 0.11742 -0.024189 0.16013 0.09824 0.12811 -0.17482 0.20976 -0.22362 -0.20656 0.24428 0.066875 -0.12594 -0.015706 0.064986 0.4754 -0.055405 0.54286 -0.75188 -0.083218 0.17896 0.073084 -0.3033 -0.17416 -0.17147 -0.1192 0.038308 -0.2066 0.088679 -0.055993 0.361 0.38658 -0.055434 0.097699 0.3686 -0.326 0.13023 -0.29897 -0.24709 0.051869 0.030422 0.18586 -0.046117 -0.14765 0.35895 0.10094 -0.087822 -0.17514 -0.25403 -0.35855 0.15801 -0.027074 0.12565 -0.17509 -0.13126 -0.13916 0.053628 -0.049429 0.051938 -0.048684 0.071719 0.080952 -0.20018 -0.10871 -0.26707 -0.35727 0.3712 0.016709 -0.034959 -0.047711 0.0024827 0.10847 0.0089053 -0.14874 0.046014 0.42702 -0.24684 0.12193 -0.27579 0.25844 -0.20991 -0.086667 0.14767 -0.17441 0.17054 -0.30868 -0.08797 -0.17195 -0.11743 0.12146 0.069268 0.13311 -0.13565 -0.24855 -0.0026393 -0.71169 -0.32594 -0.36397 0.053331 0.35714 -0.30035 0.041583 -0.11996 -0.02368 0.016728 0.15869 -0.16491 -0.2782 -0.13788 0.10178 -0.24177 0.096347 0.2367 0.20885 -0.28867 0.10772 0.15562 -0.012284 -0.22161 -0.1017 0.1257 -0.29579 -0.0089604 0.35075 0.020088 0.020389 0.0038884 0.31869 -0.19848 0.060458 0.28148 -0.23499 -0.17035 -0.22323 0.57975 0.26464 -0.10124 0.081058 0.14029 0.066431 -0.12212 0.040034 0.027548 -0.1476 0.31438 -0.23046 0.2645 -0.10945 -0.39033 0.1266 -0.030951 0.067389 0.16807 0.22373 0.13502 0.38235 -0.52807 0.54013 -0.043062 0.093211 0.045211 -0.24291 -0.49781 0.26425 0.0264 0.14347 0.11763 -0.011614 0.097932 -0.26632 -0.22143 0.25156 0.08128 0.10937 -0.12199 0.019255 -0.33463 -0.18181 0.064724 0.22921 -0.032425 -0.27295 0.31983 0.16134 0.93692 -0.1214 -0.012617 0.25274 0.24615 0.13214 0.16092 0.20576 -0.051567 -0.3784 0.19761 0.16993 -0.087151 0.026922 0.38035 0.083349 0.24715 -0.1094 0.15459 -0.051741 0.16604 -0.21335 -0.030744 -0.14574 -0.50462 0.34825 -0.12343 0.17733 0.2857 -0.30467 -0.15095 0.30346 -0.15678 0.064804 -0.073008 0.26499 0.16312 0.11889 -0.63938 0.15598 -0.23643 0.59644 0.38748 0.3358 -0.58647 0.12584 0.36144 -0.33622 0.38128 -0.10348 0.18825 -0.33686 0.0058178 -0.1345 0.55511 -0.056443 0.15094 -0.28438 0.025488 0.20392 0.052712 -0.45719 0.089267 0.095469 -0.19022 -0.17101 -0.37599 -0.182 -0.065605 -0.061388 -0.19467 -0.070368 -0.23977 0.39253 -0.21283 0.17221 -1.867 -0.22609 0.53976 -0.3358 -0.48587 -0.050246 0.31694 -0.15536 0.12244 0.38356 -0.1389 0.41886 0.23664 -0.31113 0.045194 -0.20405 -0.21097 -0.11025 0.021766 0.44129 0.32797 -0.33427 0.011807 0.059703
